([9, 18, 1], [array([[  2.46105971e+00,  -2.18157912e+00,  -6.24101471e-01,
         -7.46931471e-01,  -4.88903076e+00,   8.44950471e-02,
         -1.09788333e+00,   3.76261630e-01,   7.08024368e-01],
       [  2.05196164e+00,   5.81966626e-01,   1.79551633e+00,
          3.27671218e-01,  -2.96672157e+00,   1.25305120e-01,
          3.96521052e-02,   1.91290495e+00,   4.07709953e-01],
       [ -2.38110003e+00,   1.72839790e+00,   2.75965579e-01,
          3.03935405e-01,   3.93075566e+00,  -9.09521087e-02,
          4.72318496e-01,  -2.25680439e-01,  -5.56096840e-01],
       [ -3.88874943e+00,  -1.21121555e+00,  -1.61561244e+00,
         -9.30002222e-01,   6.51138953e-01,  -1.86145557e-01,
         -2.57407520e+00,  -1.11729128e+00,  -6.57419986e-01],
       [ -4.11472245e-01,  -5.13575447e+00,  -2.20059717e-01,
         -3.79152941e-01,  -8.06975961e-02,  -3.05793825e-01,
         -1.03985706e-02,   5.76100116e-01,  -8.92760072e-01],
       [ -1.62548653e+00,  -2.35159298e+00,   1.16974396e-01,
         -1.04341913e+00,   6.90402339e-02,   7.05831483e-01,
          1.62158452e+00,   2.02273548e+00,  -1.11533347e+00],
       [  3.64386279e+00,   2.36106685e+00,  -2.58014437e+00,
         -3.00908994e+00,  -5.73924615e-01,   4.21203493e-01,
          9.50730444e-01,   2.12321568e+00,   2.55678214e-01],
       [  1.37423729e+00,  -2.17200773e+00,  -7.48542396e-01,
         -3.29211354e-01,  -2.57487107e+00,  -1.45574497e+00,
          2.06410316e-01,  -2.22023982e-01,  -8.50213689e-02],
       [  1.52659015e-01,  -6.49818813e-01,  -2.01419289e-01,
         -8.19628241e-01,  -5.30031931e-01,  -7.40413444e-01,
         -1.07772424e+00,  -5.20573971e-01,   5.02051261e-01],
       [  1.19343743e+01,   7.96824511e-01,  -3.00049458e-01,
         -5.23950338e-02,   4.91738399e-01,   2.84483641e-01,
         -1.69239576e-01,  -1.64517828e-01,   2.19832756e+00],
       [ -7.07595851e+00,  -2.17752762e+00,   3.97762938e-02,
          4.30341493e-01,  -7.45839038e-01,   1.02653547e+00,
         -5.91459356e-01,  -6.09867964e-01,  -1.90816730e+00],
       [ -1.60191076e+00,  -8.14782686e-02,  -1.27684426e+00,
         -1.31354565e+00,  -2.93358772e-01,  -5.15366589e-01,
          3.96416835e-01,  -7.10031224e-01,  -6.53983302e-03],
       [  8.23844679e+00,  -1.16364190e+00,  -5.04471622e-01,
         -5.93476672e-01,  -5.31414417e-02,  -1.46649097e-02,
         -3.21967438e-01,  -1.66784295e+00,   1.87078629e+00],
       [  3.62814645e+00,   1.13823318e+00,   2.91347899e-01,
          3.02093637e-01,   1.44451797e-01,   1.94175974e+00,
         -4.42437467e-01,  -2.35708737e+00,   3.83833183e-01],
       [ -1.00951532e+00,   2.26307235e-01,  -9.97069729e-01,
         -1.11635487e+00,  -2.82858136e-01,  -6.12555003e-01,
          3.02850765e-01,  -3.46855112e-01,  -1.08239644e-01],
       [ -1.46882646e+00,  -3.34236774e-01,  -5.90990620e-01,
          4.94660340e-01,  -2.06310537e-01,  -3.76317498e-01,
          6.98749347e-02,  -9.72529338e-01,   5.96594589e-01],
       [  2.68382354e+00,   7.59435924e+00,   1.24118830e-02,
          5.27902611e-02,  -3.26565266e-01,   6.10743357e-01,
         -1.21871801e-01,   1.04128806e+00,   4.00621512e-01],
       [  1.34145237e+00,   8.89495530e-01,   2.02489084e-01,
         -1.62248824e-01,  -5.59975762e-01,   9.43097646e-01,
          1.90866938e+00,   1.61414930e-01,  -4.39299897e-01]]), array([[-7.80727485, -2.13384329,  4.50649897,  1.10453788,  3.10230717,
         2.10259978, -4.74419344, -4.31855795, -0.65181381, -2.60087505,
         1.90677252,  1.25878548, -2.6333188 , -1.83048967,  0.76317942,
         1.10967808, -5.36813115, -1.99896801]])], [array([[ 0.36191105],
       [-0.06308254],
       [ 1.30622867],
       [ 3.88733656],
       [ 2.89260088],
       [ 0.72627017],
       [-3.78025645],
       [ 1.09122524],
       [ 0.78267207],
       [-6.92302181],
       [ 3.40094097],
       [ 1.23147527],
       [-5.82297712],
       [-2.18152391],
       [ 1.54340202],
       [-1.42226537],
       [-1.1824264 ],
       [ 1.75297944]]), array([[-3.61125894]])])